{
  "type": "mlp_landmark_classifier",
  "version": 2,
  "labels": [
    "alif",
    "ba",
    "dal",
    "ha",
    "jeem",
    "kha",
    "raa",
    "ta",
    "tha",
    "thal",
    "unknown"
  ],
  "feature_mean": [
    0.0,
    0.0,
    0.0,
    0.11499175899689677,
    0.24242214893233943,
    -0.025822976022715147,
    0.2776091103628584,
    0.38167050389436324,
    -0.04743491264419878,
    0.403914703261526,
    0.3889495757050913,
    -0.07679788920072335,
    0.46372894503476436,
    0.3366717227295992,
    -0.10274379718126364,
    0.4799140498609013,
    0.1961912734114558,
    -0.026125396660090713,
    0.5988079540966753,
    0.3384292334013766,
    -0.0845390468887217,
    0.6255833834194545,
    0.401163990103984,
    -0.12479843825337987,
    0.6521245809125014,
    0.4341514091099419,
    -0.1525914313627957,
    0.47198191048299837,
    0.07839393366481728,
    -0.05842849297228618,
    0.5774975797701347,
    0.28196698743032783,
    -0.12615792831564504,
    0.5453508773386723,
    0.34084700637584414,
    -0.1544140039512948,
    0.5384904899069285,
    0.3586143204307501,
    -0.1678808529341332,
    0.43101557948459557,
    -0.011702096532253316,
    -0.09771180950364514,
    0.5052102051438775,
    0.18914991100261377,
    -0.17547435850531762,
    0.4397807732557243,
    0.23982843281255872,
    -0.17913793540062795,
    0.4107088741372818,
    0.24270390199657568,
    -0.16793990584695292,
    0.36431476330034523,
    -0.08439334945187024,
    -0.14023062593963254,
    0.4315667308186597,
    0.08757566650269906,
    -0.19145756003093814,
    0.3804192895201371,
    0.14338475666437792,
    -0.1828816681841992,
    0.3414938192726637,
    0.15037618245849324,
    -0.16980315156653467,
    0.6939512864065215,
    0.9178708676013464,
    0.7621812452534776,
    0.6013834892309282,
    0.5199086775094626,
    0.4965641813211792,
    0.27719180453241865,
    0.2245408916524128,
    0.17165310999486175,
    0.1521386740798766,
    0.1386667442623486,
    0.1429770587233654,
    0.4169712087093876,
    0.7803233522347867,
    0.8417324008890935,
    0.8051427135552502,
    0.9183400629423204,
    0.6434221437937189,
    0.8797618843919747,
    0.5439787145573489,
    0.8411304691061627,
    0.5096014287772568,
    0.8317124247680736
  ],
  "feature_std": [
    1.0,
    1.0,
    1.0,
    0.08426555427423538,
    0.11033574103608447,
    0.06374661235880867,
    0.13380424111268494,
    0.2011437548296898,
    0.08542069327298166,
    0.1795593068671106,
    0.26435916509092106,
    0.09637343867549242,
    0.2374355105838341,
    0.34708150091558926,
    0.106049347442616,
    0.08157179752199538,
    0.2366762210319749,
    0.0890830509705322,
    0.142275881529941,
    0.2883702715483675,
    0.1142381667531157,
    0.17839660907786437,
    0.3380063989219222,
    0.12341985162522832,
    0.2259723848885542,
    0.39419590412365396,
    0.12795886773468268,
    0.0917775131698224,
    0.20010817261318478,
    0.0714665465394205,
    0.1903092292695515,
    0.24470048041390813,
    0.09298980338450703,
    0.238376585747768,
    0.2680214802593097,
    0.09013301330849666,
    0.283092655077962,
    0.33477277582302445,
    0.09284176086213561,
    0.11630356066175791,
    0.17577542690038817,
    0.06186619552727863,
    0.20927219282068835,
    0.26812647543686874,
    0.07611085317034019,
    0.23805875562843257,
    0.2759891775992478,
    0.07102356292477344,
    0.2627294753425366,
    0.3254942655813033,
    0.07872924241679906,
    0.13585203910213456,
    0.19135661356161798,
    0.06298533635560265,
    0.20373040941191156,
    0.2893908666370442,
    0.07056225846991468,
    0.20694282029143324,
    0.29288814972369936,
    0.07745477869852785,
    0.19803947344494124,
    0.3307841170967216,
    0.08906145228832138,
    0.2132321208443057,
    0.13182765942160965,
    0.2582127495986378,
    0.2744089319745123,
    0.23308541274395794,
    0.168461768470665,
    0.21433780178732006,
    0.2059897814046996,
    0.14931528044150447,
    0.043753254387744654,
    0.041396865651185055,
    0.042967527661193446,
    0.130807940724903,
    0.1946013148656806,
    0.14058230227165952,
    0.22374321928064186,
    0.11326027348942026,
    0.305102688277275,
    0.11540351647190555,
    0.2990885311108121,
    0.13278670926901331,
    0.2830741003193045,
    0.14758413052962802
  ],
  "layers": [
    {
      "activation": "relu",
      "weights": [
        [
          6.0324410135427004e-05,
          0.014649920045472534,
          -0.013443205531998802,
          -0.043672951033032835,
          -0.0222962013268201,
          -0.04862848451302676,
          0.0029493293076358227,
          0.06572163840452554,
          -0.024136883190876115,
          -0.030426923690289553,
          0.024020934103225138,
          0.017501068562955708,
          0.005169316778259717,
          -0.045628405276031764,
          -0.0014344544318395545,
          0.03409636271432746,
          -0.06591775664976872,
          -0.02244061741205839,
          -0.09323239221917093,
          -0.0632365087057875,
          -0.09031522704445188,
          -0.011528427511812257,
          -0.06215319488927741,
          0.01330229465874995,
          0.0076867788728752105,
          -0.00916674242464912,
          -0.12341716915567906,
          -0.0264164878211563,
          -0.0023783952663573842,
          0.005556459852843699,
          -0.07503498398779078,
          -0.023428123324390215,
          -0.04798473770036781,
          -0.039663859036052976,
          0.05202447587528312,
          -0.039599983739417574,
          -0.0015948033271653997,
          0.04336881800559826,
          -0.028618669083718826,
          -0.00547765380523867,
          0.005416954107475627,
          0.003127738412388995,
          -0.06007443678635918,
          0.003733773888540203,
          0.06663414841423243,
          -0.07586906911611337,
          0.042142512899034416,
          0.0058528972454044564,
          -0.031456503295692335,
          0.09809667018281741,
          0.03737978457873818,
          -0.05881087521438207,
          0.003654135900058874,
          0.02827977402536268,
          -0.009257520850246852,
          0.03348863683816014,
          -0.0032618844450535665,
          0.032720567136446194,
          0.07054244601317691,
          -0.03313320773769281,
          0.009961535911718172,
          -0.02271973335353009,
          0.006241003846693067,
          -0.05821778981697463
        ],
        [
          -0.028407862228697414,
          -0.009621082004440274,
          0.04407369219919158,
          0.056159536250956765,
          -0.06490331704889511,
          -0.038967769103916514,
          0.031722928807177295,
          -0.09770452398589044,
          -0.022712980236004675,
          -0.004770768107276645,
          0.06164165351822634,
          0.033807072422336194,
          -0.016045931544416418,
          -0.018074269574988724,
          -0.012269112515960749,
          0.07471102025407464,
          -0.020989539252892354,
          -0.014891915862660294,
          0.017290305614993326,
          -0.005922355791917157,
          -0.009674447993549353,
          -0.05463176022165094,
          -0.0005649911526006046,
          -0.021752390025454052,
          0.05718471588385582,
          0.03202623351961616,
          -0.0011839574346589577,
          0.032776150005253295,
          -0.016666564461559903,
          0.0515943004780513,
          -0.0002647843136996347,
          0.02860797492059728,
          -0.06330298015143897,
          0.017000538450839642,
          -0.08278635907375284,
          -0.09980870863639561,
          -0.01493097420422966,
          -0.044130759602255556,
          0.00804484097223436,
          0.11007864878528323,
          -0.04078614264592166,
          -0.03059702156732466,
          0.010072623718394848,
          0.024176445816672734,
          -0.00865062214019667,
          -0.010098436610327138,
          0.03444746392950068,
          0.025495294012086223,
          -0.05068952132008814,
          -0.003882903143898101,
          0.0017304007814095978,
          -0.0517099452967121,
          0.012742021458509686,
          -0.042072574197950435,
          0.04766832558778093,
          0.00945189753227996,
          0.004379422323661119,
          -0.0289829203346889,
          -0.0058164029859911846,
          -0.09796572596970744,
          -0.05548209730678684,
          0.017792982254270086,
          -0.10438092978456032,
          0.04151609176476206
        ],
        [
          -0.08562529157505537,
          0.03710903483888115,
          -0.041461586451363094,
          0.038200259648830656,
          0.006421601262984592,
          -0.07536349893668513,
          0.06125590848504204,
          0.07069861104383182,
          -0.0032269489932566617,
          -0.013432339508551293,
          -0.007839575743673612,
          -0.04781963834509343,
          0.053872631295780474,
          -0.02662240065411502,
          -0.002510281690840464,
          -0.03890176561702146,
          -0.03070144889867038,
          -0.0626572415705061,
          0.061644318074577764,
          -0.007556165177546793,
          0.04736698195590348,
          0.0006534132059190077,
          -0.034052244746427776,
          -0.016020031559238576,
          -0.02747267847181116,
          0.0003902992749796816,
          -0.018402380978924764,
          -0.014707597626705085,
          -0.06760271322456583,
          -0.03956620884531021,
          0.08111187548650713,
          -0.03291601619212244,
          -0.05169077951055824,
          0.016541849771786396,
          0.06900998548015211,
          -0.07130262079620092,
          -0.010225519785475217,
          -0.03099467010254733,
          -0.08635708741485452,
          0.036039425457903354,
          -0.0011496457327711824,
          0.0035033738596282923,
          -0.036891941591955246,
          0.022301761162417652,
          -0.026446129092390292,
          -0.007007704939056011,
          -0.05434702767578924,
          -0.05963539523539658,
          0.06549197374294541,
          -0.024867462249410412,
          0.01430345683180729,
          -0.0016570194546578862,
          -0.0216329321696614,
          -0.024909451915913632,
          0.030898066842120854,
          -0.014803020348428564,
          -0.007426512059753186,
          0.001089703427539202,
          0.05769375826755731,
          0.033370980037348875,
          0.018761998516655807,
          -0.027636482611247317,
          -0.06776915036886551,
          0.04656316441316175
        ],
        [
          0.04765266829777953,
          0.008406267324556337,
          -0.042391136894908095,
          0.019833358003864824,
          0.07122819259900656,
          0.014568803705931038,
          -0.029507458511508912,
          0.10597879519891092,
          -0.15154103449676895,
          -0.03618709718648128,
          0.049118732030537716,
          -0.04248605305467542,
          0.10375798454130056,
          0.14328187559103644,
          -0.08014871963792959,
          -0.15132498505314163,
          0.009365681091848023,
          -0.09220978658517007,
          -0.07311880395783665,
          0.010383862015060603,
          -0.13026492150895422,
          -0.16957896868328265,
          -0.07031626333725673,
          0.00971192186578821,
          -0.14425202077346702,
          -0.08145607668199635,
          -0.03853627102087636,
          -0.08460645680939907,
          -0.07864405128017793,
          0.029654125402396144,
          -0.11133372247317568,
          -0.006010744390134713,
          0.007407083881500208,
          0.03858677084590082,
          0.048218124721970984,
          -0.10984810432350865,
          0.0012260755370264197,
          -0.02335143410864532,
          0.03234103018595009,
          -0.04681585109274125,
          0.06187569424990678,
          0.05764385507371509,
          0.13494581632699812,
          -0.10289204796895668,
          0.029273969240949518,
          0.013366479222016598,
          -0.03271840216469101,
          -0.0669881157947784,
          -0.06954988857406623,
          0.08048975612024921,
          0.00837506208757322,
          0.0026731156821323074,
          0.027398687277663245,
          0.02331402615889312,
          0.009273840097256729,
          -0.10121656268603844,
          -0.152717334040759,
          -0.05287495383889044,
          -0.18274637383179118,
          -0.056441155867098296,
          0.07102268735288371,
          0.06917556756743917,
          -0.04267241623030812,
          -0.10410998248379902
        ],
        [
          0.05407184707197446,
          -0.010115574583074447,
          0.01953433509561393,
          -0.031656514697206664,
          0.01775674370491475,
          0.05067707357063816,
          0.014852319476031947,
          -0.0006750514806525901,
          -0.004224377306934283,
          0.05408425811325814,
          -0.01070108993780944,
          0.003807305783863238,
          -0.0850889577304409,
          -0.06707203824837488,
          -0.2238014593533615,
          -0.044125510011281004,
          0.11277116006207848,
          0.11477195758423768,
          0.033337673514984824,
          -0.019639942785714803,
          0.035560404010661635,
          -0.14785049500305475,
          0.05005645673347907,
          -0.04015519899217993,
          0.06331115325332796,
          0.020056726016337414,
          -0.04071441440543511,
          0.03506578177066387,
          0.08754037196056877,
          -0.015028147711280773,
          0.04548385162379964,
          0.10863616754343011,
          0.015204031623490691,
          -0.12878745036544384,
          -0.03854722262907904,
          0.06323964952729716,
          0.04237233144759172,
          0.014881537617269177,
          0.06109321810063113,
          0.00763592337307185,
          0.04085142969474596,
          0.0252373367108351,
          0.03294587537272439,
          0.0038388078229241026,
          0.03830880942500196,
          0.03931255302752911,
          0.02921780791665954,
          -0.035175357031540594,
          -0.09813172443988784,
          0.058749982194648845,
          -0.010212183165475001,
          -0.030947567406768642,
          -0.007932766572744804,
          -0.1891117425719099,
          -0.0006934103046026682,
          0.05468057622000221,
          0.04130675359504845,
          0.04412983284883977,
          -0.00010245990313561685,
          -0.005923756317710757,
          -0.06305390831916595,
          -0.010106226833848472,
          -0.03867719360786576,
          0.05298263800028421
        ],
        [
          -0.1075065837575447,
          0.047312043511037696,
          0.09481542951428916,
          -0.01889963336030542,
          -0.0242458159132274,
          -0.0009731836187206977,
          0.003990160515483571,
          -0.004586944160034588,
          0.04177518776715336,
          0.09969988330163172,
          0.0013798562983093293,
          -0.07649725201826174,
          -0.09304551064781642,
          -0.05606863837375761,
          -0.09349616317083209,
          -0.07908740821838836,
          0.051577399398468816,
          -0.08428895556633038,
          0.04407838285417791,
          0.09050540762801222,
          0.008008442896459807,
          0.0064489344261013685,
          0.1516798798751212,
          -0.004842457606557851,
          -0.09200458654290823,
          -0.09874514710530778,
          -0.0043048904181991424,
          0.07070799985970727,
          0.09867194111903117,
          -0.03706539484487266,
          -0.03469798758857699,
          -0.05769683865561514,
          -0.00563406605879964,
          0.03137427285157715,
          0.10009205204491436,
          -0.04200491849171283,
          0.0035762620207716125,
          0.007368018234756469,
          -0.01242343627556074,
          0.00455846755141239,
          0.03766338038665095,
          0.16045175912423992,
          0.04756663804001612,
          -0.0021270965797663397,
          -0.08616541380733324,
          0.08744827594068644,
          -0.12559073348231384,
          -0.13158688719954817,
          -0.002329410607341717,
          0.07090893849258546,
          0.0067171358223109935,
          -0.054212297082248076,
          -0.014532382961430635,
          -0.06165746354103405,
          0.024956310571031787,
          0.14907177428841323,
          -0.03586430374412495,
          -0.017415229857707867,
          -0.04752948696167518,
          -0.02787148789738234,
          -0.056618045860480665,
          -0.021311525170080392,
          -0.026077603724191267,
          -0.04937398568836997
        ],
        [
          0.061791534291391295,
          0.062009024103488165,
          -0.03135566006037561,
          -0.04720482403737825,
          0.06362924664598356,
          -0.027662365547955616,
          -0.02614831455591519,
          0.011340191053905746,
          -0.14764673755668584,
          -0.15227743021684265,
          0.05926400503490626,
          -0.07814112225222508,
          0.018163591182220697,
          0.12259940588072447,
          -0.13007041275047565,
          -0.10696077898207504,
          -0.010704437288474346,
          -0.010650340938684435,
          -0.08242890275378635,
          0.008349264696495724,
          -0.03480849221627535,
          -0.1202776113831895,
          -0.1451759677026898,
          0.03822827542073186,
          -0.10055715664173812,
          -0.15439726653095523,
          0.05702377147067494,
          0.012284986799744971,
          -0.020143469875326694,
          0.04824180111720897,
          -0.0447403191199666,
          -0.08346465012292026,
          0.14258054883471222,
          -0.010905538169400222,
          0.18483062512963658,
          -0.11960790355352179,
          0.05544435264974332,
          -0.06967334991630622,
          0.008991371804809177,
          0.034946172548866845,
          -0.012742751542496829,
          0.10089347298627088,
          0.04881679434851548,
          -0.09285121415441573,
          -0.038702369338421534,
          0.00031947024012897647,
          -0.01811667335455545,
          -0.012927568337389558,
          -0.09725878139581681,
          0.03320868465436781,
          -0.04433960517916621,
          -0.08169592376231095,
          0.03844417659809221,
          0.0038826781326895964,
          -0.06328486567566623,
          -0.007063715637965154,
          -0.13244847135859317,
          -0.0024504452266702437,
          -0.004016845037758054,
          -0.05497274878161933,
          0.0983217114046843,
          0.03253441827403423,
          0.04454868402870234,
          -0.08112743442319824
        ],
        [
          -0.027140336991305875,
          -0.004477770154903928,
          0.030339954134765174,
          0.0028175091401094567,
          -0.0007544969530083864,
          -0.029369855731574985,
          -0.012964326195828555,
          -0.024076487416187117,
          0.11227686010787541,
          0.016016815491004123,
          -0.008683709563473117,
          -0.09212491547460586,
          0.033133662390815444,
          -0.09200673389523902,
          -0.2955119841556297,
          0.040964491811761095,
          0.08378289537439913,
          -0.0317604696886353,
          -0.002166766903498137,
          -0.07630820580513885,
          -0.0245414864853761,
          0.027716751458489983,
          0.003150174593930443,
          -0.06941291683415497,
          0.12834961075348272,
          0.046158461346075194,
          0.012675276664353833,
          -0.023222542170415736,
          -0.028020899897494036,
          -0.12438416358908927,
          0.10406774419858608,
          0.03584079562356857,
          0.030699962209288705,
          -0.07028889053525901,
          -0.0016015202988183392,
          0.02203833300095673,
          0.06957885263532011,
          -0.06177221728824779,
          -0.058405937421503344,
          -0.04947244100252424,
          -0.06972025952804045,
          0.03127892971199136,
          0.03815830692404819,
          -0.027927650469995874,
          -0.09451492024915358,
          -0.05012960985132496,
          0.09711889076212915,
          -0.13210443349434106,
          -0.01372585282669189,
          -0.06129262440884784,
          0.011237990573294308,
          -0.055842088654864674,
          -0.02668644223753182,
          -0.19298498306737075,
          -0.04872914371179516,
          0.06062257235985918,
          0.13632750510726277,
          -0.016556032592340144,
          -0.035605574751981194,
          -0.10439144490501194,
          0.001809655512419829,
          -0.007094634360786798,
          0.003988038565183959,
          0.04051157876675813
        ],
        [
          -0.13211000475023668,
          0.02394048779287959,
          0.01043624653249303,
          0.06630428976077388,
          0.10402374171323961,
          -0.022760049382091443,
          -0.03214036965405239,
          0.03762057234214493,
          -0.013359227634037902,
          -0.042648144942514656,
          0.021065354203154293,
          -0.12973200522069084,
          -0.01954307816318354,
          -0.08780254441451282,
          -0.003272278202749903,
          -0.034738096986395045,
          -0.042327526653185794,
          -0.06863149091548003,
          -0.01160784689687764,
          -0.010118172115557749,
          0.007900874708186144,
          -0.01966935778248512,
          -0.017701589452745796,
          0.0056491782737552254,
          -0.12028807757681029,
          -0.03696383484789704,
          -0.0340550727369676,
          -0.09347313709683706,
          0.05253948974832002,
          0.013081681413177799,
          0.012645246318056382,
          -0.05647197515097302,
          -0.01741106539390044,
          -0.05191975750003835,
          0.06394187529619441,
          -0.08688497109340845,
          0.03357007038594828,
          -0.06664402684011071,
          -0.010294357173519312,
          0.010886037648705804,
          0.00841960175006049,
          0.04032371874063721,
          0.06150053762024952,
          -0.09218562170540118,
          0.01305473946683791,
          0.09353301182133672,
          -0.005267815543338865,
          -0.04406083456731241,
          -0.07895166464220575,
          0.00414728709295389,
          0.05176033673086416,
          0.030393229950427536,
          0.03330946707978772,
          -0.08391377329682015,
          0.02285325068936666,
          0.09315315909857502,
          0.008639457923159986,
          0.04336395516895059,
          -0.06751184883161869,
          0.038172445228070076,
          -0.05079130357978404,
          -0.09924629551961225,
          -0.01397609718410163,
          -0.0755827628453415
        ],
        [
          -0.06550724619826084,
          -0.025694810353798527,
          -0.03969751953643568,
          -0.0440156604308004,
          0.050026977122768074,
          0.08180012441591657,
          0.08302138668948805,
          0.02104822072240773,
          -0.10491252008275245,
          -0.13267239431197037,
          -0.0194338489731425,
          0.006724586449209506,
          0.017132836186811936,
          0.09545216268480429,
          0.03764263375105535,
          -0.08798911574708992,
          -0.020008942285247654,
          0.007683585531835375,
          -0.04157672652444544,
          0.0027568063747154376,
          -0.024353056274754866,
          -0.04728491335719708,
          -0.10336478920426015,
          -0.047131720211530344,
          -0.22761505011782823,
          -0.01774170171682756,
          -0.010811024551778809,
          -0.028339835258907806,
          -0.1915963167762005,
          0.03249856738395684,
          -0.06950062444240532,
          -0.07542682586356385,
          -0.10345898281847737,
          0.03556933220991772,
          0.16351996524661253,
          -0.020709438544521216,
          0.011338039816702592,
          0.0141084825398861,
          0.05000461130028139,
          -0.1638059601099102,
          0.04538616261785249,
          0.0813585572492595,
          0.04967048352707055,
          0.03001620055618764,
          0.05328064476928523,
          0.04402784706772113,
          -0.0012683469169585398,
          0.08461535456759745,
          -0.03360306403679225,
          0.0653238558324842,
          0.04547250876267468,
          0.06350642426027958,
          0.015336005547767801,
          -0.025149985266551253,
          0.003708868681802583,
          0.04023145495401643,
          -0.09940446031919699,
          0.09454473899049043,
          -0.11798020459788383,
          -0.03880882356345393,
          0.030212710729884948,
          0.11088759728743156,
          0.0816761123338507,
          -0.1528504130206665
        ],
        [
          -0.09419063933153574,
          0.014168111596486385,
          0.04840697846640034,
          -0.055003114308715226,
          0.07845124468852123,
          0.04777709566067205,
          0.013737716918079911,
          -0.0445404122797803,
          0.15543613251985341,
          0.042290331123275744,
          0.05367238293959688,
          0.003445787068003796,
          -0.022310857421886876,
          -0.02215396412800694,
          -0.20672701577129388,
          0.06156750858325735,
          0.052079495442032914,
          -0.07382354371066888,
          0.08045730066469375,
          -0.0021539597433974126,
          0.0932016456255473,
          0.04251282640670304,
          0.06061144903127817,
          0.03935839323544283,
          0.23100600358112724,
          0.12210056045361344,
          0.0041977534453137245,
          0.005492164391724343,
          0.14922037447864447,
          -0.020767604219488995,
          -0.047375532197433345,
          0.006259462038713581,
          -0.042028558324372065,
          -0.09032419828720446,
          -0.14218602281520687,
          -0.06770127634770853,
          -0.013379779567105373,
          -0.04096572861746467,
          -0.04163444362297568,
          0.016202148043670123,
          0.009975868826560612,
          -0.04126228051168796,
          -0.008807369621207935,
          -0.018909932945682432,
          -0.021868607906671587,
          -0.08860485462196772,
          0.08284771950211627,
          -0.027454136634397813,
          -0.07651087076915163,
          -0.058485518540659344,
          -0.011733733041855304,
          0.05842908626605711,
          -0.15301854017874864,
          -0.19783774816553204,
          -0.050613829178575785,
          0.14887754363270445,
          0.1860166679620906,
          -0.04907934047714596,
          0.09940520374617037,
          0.06660183367708412,
          0.028149193406202273,
          -0.03492163699153077,
          0.07367931850387073,
          0.09004682769029393
        ],
        [
          -0.06008775542865881,
          0.006408464015815235,
          0.09801050466988753,
          0.08868970426844579,
          0.03964940243101826,
          0.012414522962688796,
          -0.08949370837994117,
          0.06762271154853605,
          0.0013858224584475894,
          0.008794409342815274,
          0.06396178223046146,
          -0.10518917790740581,
          -0.13647752087827347,
          -0.06803566989261814,
          -0.027308871404639033,
          -0.04094531756998476,
          -0.036122254265479915,
          -0.01859327294028809,
          -0.11073235561565149,
          0.07433689790364134,
          0.008322341549171393,
          0.033533341466695586,
          0.13791100776912557,
          0.0002664420623765323,
          -0.14336003106987752,
          -0.015242856989529159,
          -0.087725354036442,
          -0.007396841820844926,
          0.047194757498238815,
          -0.09547535084064503,
          0.044349289568671714,
          -0.12187540632065823,
          0.04452300577922352,
          -0.04317894889660908,
          0.04929555620410672,
          -0.06395763309025229,
          0.013381359863968092,
          -0.0517238107806777,
          -0.10598496218688798,
          -0.009942556555429714,
          0.10726895188658285,
          0.15264582346694683,
          0.11480311741220602,
          0.012866321085804292,
          -0.056854465947564804,
          0.16349207287129636,
          -0.0124862409660023,
          -0.0616342812274888,
          -0.05748520451090021,
          0.00828740847416239,
          0.0034731086852915725,
          -0.014031703838014418,
          -0.011397543967666603,
          0.0022813149573327747,
          0.10670372025792432,
          0.02695060227037708,
          -0.053527832260642366,
          0.06546824733376266,
          0.036475829479279825,
          -0.04111458861889812,
          -0.049877921635581766,
          0.06133397954625723,
          -0.018862950365487633,
          -0.005874773918630422
        ],
        [
          0.05431753512216552,
          -0.031139988780398694,
          -0.09655742626070894,
          -0.048269877653118964,
          0.11583686786617525,
          -0.08406790800595774,
          -0.022504896269807808,
          0.0037081550852972236,
          -0.05031071474058351,
          -0.04021778040970113,
          0.07655917565461366,
          -0.026035450981241628,
          0.036419707639345544,
          0.08504292389196885,
          0.015030230642861023,
          -0.01874670829781108,
          -0.061328202283432026,
          -0.1654873608496586,
          -0.09103526163780451,
          -0.12405385308885197,
          -0.06978980646236592,
          0.02055359286354959,
          -0.10488467368360657,
          0.09561434543108951,
          -0.17128382638666764,
          -0.1582972890731516,
          -0.041954940687984846,
          -0.12875821507030025,
          -0.16981955684754207,
          0.07099644098948998,
          -0.08758018250140637,
          -0.15659830537962133,
          -0.005266877387910572,
          0.11885010598834038,
          0.1526690316366897,
          0.0014771843625690263,
          0.05216090684704778,
          0.033119015138310934,
          0.04244391582813208,
          -0.013321783143762625,
          0.07246429007608225,
          0.08319105845422842,
          -0.08143312940146895,
          -0.06516095474312673,
          0.010666495504100596,
          0.03717121133751432,
          -0.08478838677604027,
          0.12856410624320883,
          0.041768004927462785,
          0.025474471476112988,
          -0.0846030188613381,
          -0.03963455798723679,
          -0.02056775386944811,
          -0.04233616426919924,
          -0.024470578493856046,
          -0.05891128410542471,
          -0.060913264485014725,
          -0.04987813916563152,
          -0.07325340409531737,
          0.010094066495160833,
          0.1751828770628757,
          0.027683314985647713,
          0.008110371482428238,
          -0.12099853177717546
        ],
        [
          -0.056192206485971515,
          -0.01610194753824675,
          0.09834942957225,
          0.06939060020599731,
          -0.020531933606662525,
          -0.04439736593418268,
          -0.03472363083137996,
          -0.11588920652009674,
          0.03519525016545675,
          0.00577174682924357,
          0.02669897161741567,
          0.06936939509857805,
          -0.04914169986343339,
          -0.047555288352913255,
          -0.03773520671494795,
          0.023883362077126775,
          0.013497891378121378,
          -0.13618727777827538,
          0.10825094740002246,
          0.04349193983911984,
          -0.012383606603537614,
          0.06773043811150241,
          0.1983223860475835,
          0.011479596916998505,
          0.1601433415180786,
          -0.0895977375606801,
          0.06486560371155888,
          -0.03342578264439189,
          0.11562557388417832,
          0.13301705391233312,
          0.051875111810860075,
          -0.07917909807816528,
          -0.11560788955204372,
          -0.019420631957172776,
          -0.04980270892069515,
          -0.035319088533934534,
          -0.1381434059238973,
          -0.01325136985420766,
          -0.065894149219497,
          0.023245725367489454,
          0.038033235671490986,
          -0.023317158374439952,
          0.008217602003965537,
          -0.025378673835226698,
          0.05287099008632535,
          0.08164025891115799,
          0.048473197728518165,
          -0.05692999386880575,
          -0.019041937647364122,
          0.005181521686429237,
          0.003078202643162987,
          0.037476336094406884,
          -0.08028135019595664,
          -0.08493148601103788,
          -0.06844665105763727,
          0.08298571709827265,
          0.10565641016147342,
          -0.05102343366844464,
          0.12718463095237506,
          -0.08346686637669776,
          0.030797190455395865,
          0.006047601273588116,
          -0.037452974397341396,
          0.05796789231435907
        ],
        [
          -0.0746420938574924,
          -0.01448152268196609,
          0.008082498691815656,
          -0.038955059875029556,
          0.06758436739762827,
          0.08679302342559103,
          0.1121621691502196,
          0.02129618638216063,
          0.038462501135293176,
          -0.01562913998275587,
          0.04191473690085081,
          -0.011636625231503904,
          -0.11770730960315028,
          -0.028859305586235274,
          0.031024307716575106,
          0.04189769917065899,
          -9.549894252310771e-05,
          -0.0249174905151985,
          0.01778576113468113,
          0.05457220332684119,
          -0.004429903546865714,
          0.007003665842384043,
          0.007988162496258043,
          -0.1078394945879275,
          -0.01275363144664687,
          0.08218799244517962,
          -0.023819543284789264,
          0.02782743827851463,
          0.08981005277464912,
          -0.021251523479777212,
          -0.0009401410583365649,
          -0.0693454151217227,
          0.10558543426618869,
          -0.12735248429292545,
          0.10684304193653747,
          -0.09090288470673036,
          -0.008261000468493778,
          0.032480739187329896,
          -0.032095007385759815,
          -0.08209427892918501,
          0.0005025593902459008,
          0.09319085534139228,
          0.11922999359739535,
          -0.05100356290221724,
          -0.01307824282566342,
          0.13502298767771084,
          -0.03572020244016745,
          -0.03591568036366734,
          -0.0379674659432318,
          -0.035294181676698184,
          0.007512411662888497,
          -0.021015220401448487,
          0.05373797179389903,
          0.014520168464150404,
          -0.02980748390938778,
          0.08042869495775613,
          -0.03297093989879543,
          0.08588257785845405,
          0.060303482686082224,
          0.05830303314410573,
          0.0780672043599513,
          -0.0320334077919005,
          0.010570749405455607,
          -0.03547989807453325
        ],
        [
          0.10935625919074074,
          0.08906488166835047,
          -0.177236364439484,
          -0.0978567151072058,
          0.0843842306171755,
          0.06640560896355215,
          0.041908182799695465,
          0.01705027052478612,
          -0.004886978532356594,
          -0.018466427230364627,
          0.018317849214283505,
          0.08388009776563929,
          -0.19462581752627708,
          0.03758305653751102,
          -0.23635037144305174,
          0.007036726057620446,
          -0.004780092954405124,
          0.007707833614831331,
          -0.008037076534645481,
          -0.09489929194129448,
          -0.057747689464249775,
          -0.08017637854356884,
          -0.08884601754048922,
          -0.005962953103420601,
          0.05972264616046892,
          0.019632780520409295,
          0.05201495624465064,
          0.017495450623323704,
          -0.06939779066266433,
          -0.03504230235879471,
          0.05116225039606422,
          -0.008595424824499811,
          0.06820068523801474,
          0.04075637807069054,
          0.03037082207592532,
          -0.16384397354668603,
          0.07592603138893181,
          -0.05765082162003374,
          0.09462629251331449,
          -0.04898947687228642,
          -0.002403082104600124,
          0.07900167413921555,
          0.02810130206805626,
          0.06241309188967275,
          0.020544975193373827,
          0.11489038449881736,
          0.10170651852495555,
          -0.029933882971401968,
          -0.11179125696026827,
          0.06706535342351193,
          0.009027643949051749,
          -0.11541222975482379,
          0.05429766666498028,
          -0.1654119412941932,
          0.03799960779148575,
          -0.1208834616653405,
          -0.007524662685618795,
          0.047805485152380436,
          -0.09703283345645727,
          -0.033285637793863065,
          0.06500042549054215,
          -0.05421982703596663,
          -0.05445977226386269,
          -0.153666574771071
        ],
        [
          -0.09669208373442739,
          -0.10028056534448626,
          0.1178835483301035,
          -0.08362415569064025,
          -0.019684871697908023,
          -0.020458275895877617,
          0.03471374105562516,
          -0.045085180894887555,
          0.05403659350471175,
          0.107809204305911,
          0.03874974349191473,
          0.09413230907376635,
          0.007789678083104592,
          -0.07721650772232946,
          -0.005173556398132067,
          0.06152896996248762,
          0.04288810730494344,
          0.04120975773531857,
          0.10188515950262642,
          -0.12189343655544159,
          0.01744640382875518,
          0.07694112596647022,
          0.02271150693256949,
          -0.049335364123906746,
          0.07291494558826166,
          0.014442810175510556,
          0.023057810100755787,
          0.10369822832971948,
          0.07722849442347246,
          -0.12053288779532939,
          -0.05753888438006394,
          0.01905970410043277,
          0.058498965534972996,
          0.03361591980183066,
          -0.040265196207590295,
          0.15182743315526787,
          -0.009967682128607104,
          0.01008061338553288,
          -0.0606102793897151,
          -0.08695941768171889,
          -0.061179264449597856,
          -0.11441944841157992,
          -0.012499509185706852,
          -0.008416826737335943,
          0.012570607718503416,
          0.062456994374373305,
          0.07210192592616357,
          -0.026647936710730753,
          0.10707785584500032,
          0.09918706634447076,
          -0.08417034318444776,
          -0.02028247432816631,
          -0.04345101748017193,
          -0.05790242975364164,
          0.059446489332809195,
          -0.16344491978778602,
          0.026590416391872988,
          -0.07232309905128145,
          -0.04514153150516724,
          0.03345949429472596,
          0.012690020560020951,
          -0.01912528095365613,
          0.050315536200022666,
          -0.04808341949749751
        ],
        [
          -0.033097932188608986,
          0.007276963308579347,
          0.03301597145754545,
          0.05269188313766513,
          -0.017567805970671896,
          -0.05719826788936972,
          0.03258050752182532,
          0.047409977837002494,
          -0.03470453905104946,
          0.10028653685673679,
          0.15237241590622366,
          -0.1487296004567041,
          -0.0403940195148,
          0.013408562217159378,
          0.022199120854501177,
          -0.007801092946414646,
          -0.013895787974321918,
          -0.0287731969350004,
          0.007675458445828019,
          0.012273634442169008,
          0.03727082753422311,
          -0.04607171729275589,
          0.02535529073133427,
          -0.04979787723075386,
          0.017383047104523337,
          -0.07083011151319661,
          -0.02606317638137236,
          0.09826358969923268,
          0.05912773952370764,
          0.008878364886464438,
          0.06801513893186789,
          0.022677737186473073,
          0.0007052677501711843,
          -0.08179279408303682,
          0.06534701991717333,
          -0.07722871710127592,
          0.10540693109918434,
          -0.014366800982617039,
          -0.03625188032059442,
          0.010542656453777298,
          -0.027895085889615562,
          0.029301210407919033,
          0.015309838476462516,
          0.07846922126262881,
          -0.028965951128748578,
          -0.051872485578773775,
          -0.048013852970435936,
          -0.16237892008376648,
          -0.04217752280893089,
          0.01746872893918102,
          0.06184154328112528,
          -0.06333780449621076,
          0.013490929144346893,
          0.06530701293762453,
          0.036041669771837356,
          0.039495423419229084,
          0.036771138844467324,
          0.1720586161528474,
          0.12339187826283492,
          0.01599194055180608,
          -0.026843230880794433,
          0.015259904539914179,
          -0.07165114415855531,
          -0.046970715404766585
        ],
        [
          0.03439031105405631,
          -0.031343786718102534,
          -0.06773863131365147,
          -0.019983808289630287,
          0.19508834601924,
          -0.018334102454224125,
          -0.013832021779962041,
          -0.013141537819385488,
          0.05142292005704371,
          0.092860527486436,
          -0.010772533723301165,
          -0.023758219121174696,
          -0.1573437627887616,
          -0.0638685474807468,
          -0.03867963155826405,
          0.02635736367960096,
          0.01351163838851129,
          0.07171993843276488,
          0.01280109912818025,
          0.0031338553966196283,
          -0.0019828825853428736,
          0.015434153267237566,
          -0.16580721039905397,
          -0.07615535227444349,
          0.17416240837801053,
          0.005019719235560178,
          -0.04394303922396608,
          0.011521658982548857,
          -0.06968097430274676,
          -0.09188634749562966,
          -0.016356940774166752,
          0.04266934457333133,
          0.054569260529390054,
          -0.14050990498128554,
          -0.11799732976276323,
          -0.0962915296838979,
          0.015220096304056635,
          -0.058862479969273386,
          0.06992472792151126,
          0.04661100720909233,
          -0.10139199999221007,
          0.002407387630712505,
          0.07750846200072391,
          0.03892841063543731,
          0.10031602896476684,
          -0.03050587632364738,
          0.055808443078909906,
          0.06150137463337437,
          -0.1234582440307595,
          -0.013141753847616127,
          -0.003628585801297226,
          -0.13567345242848292,
          -0.0017911140595777677,
          -0.05714327609459136,
          0.04179894874655969,
          0.03422470931602698,
          0.1171424800437016,
          0.03919296804009059,
          -0.05067149956457287,
          -0.04104116105405156,
          0.07026560219817933,
          -0.04531102901465021,
          0.05060007269914806,
          0.04596199968566439
        ],
        [
          -0.018447465587102394,
          -0.11642941165302703,
          0.010738289707599602,
          -0.09186173279441351,
          -0.15115673061942142,
          0.10946191164022434,
          0.041843924737245984,
          -0.10045091229732298,
          0.06012390860227031,
          0.0753960307163521,
          -0.06320572298182214,
          0.09952702366547092,
          0.018745368949089326,
          0.03237187488738391,
          0.018053041071539908,
          0.09672547060766237,
          0.02392513779248969,
          0.046438864936127096,
          0.07935900850789462,
          0.026797543992684643,
          -0.0692884619269832,
          0.04508018478391773,
          0.0641744163399923,
          -0.030739326440008805,
          0.05977005914846347,
          -0.0006844119384091601,
          -0.007927986878332162,
          0.04844908224369889,
          0.06370695034643692,
          -0.03743476792901133,
          0.04693884965056016,
          0.045891505164016765,
          2.973294117255553e-06,
          0.012828582689020538,
          0.019426878310537774,
          0.07185154530060732,
          -0.14221269021393843,
          0.06525785780732322,
          0.045186081038313924,
          -0.04838987338933014,
          -0.036001646507358646,
          0.14485083864763382,
          -0.0810225885136046,
          -0.05134122951886581,
          -0.03148463776542646,
          0.033589625404166455,
          -0.038775717915821906,
          0.06656478008400014,
          0.0401623954019268,
          0.01668002664522212,
          -0.027002465713493632,
          0.0939758965045364,
          -0.12886779277159208,
          0.03746322793216177,
          -0.038318220501685984,
          0.08567400776154332,
          0.005063812264058489,
          -0.009592828996375794,
          -0.03512981671880252,
          0.012078845378390025,
          0.041859765343732494,
          0.06745271256874585,
          0.06961620256447688,
          0.05812436774059345
        ],
        [
          -0.05831560307206949,
          0.01166351204407434,
          0.044446411570616344,
          0.06061267042280144,
          0.08610431996731618,
          -0.008870304445206562,
          0.05158452262237063,
          0.09914161185761117,
          -0.001931179986322991,
          -0.06587098404664668,
          -0.020291342712605194,
          -0.16052200077025783,
          0.022910604118495145,
          -0.15286933522465895,
          0.0728381396653076,
          0.02068640294220063,
          0.08160109984841679,
          0.07226347098054481,
          0.0066186166404665495,
          0.024740712540722975,
          0.00417490043771191,
          -0.027456013866613983,
          0.012392706225488192,
          0.008060415824115137,
          0.09649025023900827,
          -0.07380206264731193,
          -0.0027295457777072535,
          0.011676136804319375,
          0.04521940640822735,
          0.02618770495391663,
          0.046570698587163804,
          0.06176347663317044,
          -0.041803667967475686,
          -0.02781564300652274,
          -0.023078444542070902,
          0.015051539988060603,
          0.06042114125825397,
          -0.15096589106636782,
          -0.03589544338383523,
          0.03667396063983569,
          0.0742608931137916,
          0.019962961460957076,
          0.07158393536460707,
          -0.04967499166672075,
          0.06454572216056197,
          0.1449254437795488,
          -0.009712562759928475,
          -0.06364598483212963,
          -0.11470729175155334,
          0.005057233260730235,
          0.1604720774640923,
          0.03003441524311424,
          0.1330754424856768,
          0.04282774553224328,
          -0.023949387664419657,
          0.09852325814385325,
          -0.08405171620423428,
          0.044837707265585634,
          0.06090162818756561,
          0.07014499630086861,
          -0.030324060164097014,
          -0.004445147318217308,
          -0.08354549329741902,
          -0.05665603499038548
        ],
        [
          0.0674284417188591,
          -0.01151038642068539,
          -0.12062686071148265,
          -0.08182469046827652,
          0.0423969976225601,
          -0.0847715892910669,
          -0.07748173552890945,
          -0.09226925217451269,
          0.019859662516157738,
          0.11295632205337938,
          0.11836510172203638,
          -0.13116625272281746,
          -0.10738214521866876,
          -0.01301309097881939,
          0.002573946762751744,
          0.04216264126928871,
          0.1619255994246482,
          0.09990719588463208,
          -0.04513624265079083,
          -0.08091226626059088,
          0.04255284427200853,
          0.009867009673342919,
          -0.13243489815663473,
          -0.051550763697354174,
          0.11038548183820034,
          0.18414363484007687,
          -0.06880715163017524,
          0.050878771433832175,
          -0.016536263882714366,
          -0.12322123344352352,
          -0.012023079368666211,
          0.10999899227863934,
          0.04299075080256079,
          -0.2395348546461525,
          -0.15927539490422374,
          0.030854034513193535,
          0.15490604681272285,
          -0.19849011372665615,
          0.1621638672833842,
          -0.03410494759716744,
          -0.03617218975356884,
          -0.015252255306876862,
          0.07894225434220321,
          0.009424587866521596,
          -0.03586277864092634,
          0.005670583082737803,
          0.0017079171178699803,
          -0.08350250798456688,
          0.09984576146957322,
          -0.032647036047210455,
          0.1177053644462032,
          -0.15241354880264799,
          0.1891509079467846,
          0.11121311021798477,
          0.12660277871992973,
          -0.005664400426151246,
          -0.014530624132802258,
          0.040637869484566075,
          -0.13098444737370202,
          -0.06036949384846557,
          0.008505596403264037,
          -0.10448633960131601,
          -0.021379009655656925,
          -0.008579697530705943
        ],
        [
          0.04890382233232513,
          0.030965672551968852,
          0.0676009742399913,
          0.05448824592484266,
          -0.12094894249143469,
          0.021908875812531044,
          0.0715513147080204,
          -0.07477285212687286,
          0.033737347987114315,
          -0.06242081366164598,
          -0.02797981272688459,
          0.18828582378340683,
          -0.002784196682448207,
          0.00550547401598139,
          -0.06168404348921845,
          -0.027808517010149664,
          -0.08940865543096135,
          0.03719513461108285,
          0.1552238543224362,
          0.03267475452002925,
          -0.02527619669406389,
          0.07753866263126752,
          0.06154569854976798,
          0.02979278760965747,
          0.0342560611261975,
          0.00955009643519924,
          0.055050030948501076,
          -0.04711684872384837,
          0.0351758970667733,
          -0.12216851104306334,
          -0.008873702960104464,
          -0.09733912315895431,
          -0.040118955071844244,
          0.05673025359397852,
          0.0888621793715049,
          0.09787624284159557,
          -0.16784113673448908,
          0.009306925393760244,
          -0.07414346324572689,
          0.017725255992462035,
          0.11831937853832987,
          0.10177590026887391,
          -0.06712568201974341,
          0.08259573440053085,
          -0.11976080726756395,
          0.10188454423273659,
          -0.036586970445120374,
          -0.13548392140184837,
          0.17267633739883387,
          0.12761673996774062,
          -0.07615493817244356,
          0.08866852208828413,
          -0.12503500238824738,
          0.010068543392079172,
          -0.11579784048138816,
          -0.06203237526453685,
          0.07818604177060072,
          -0.06135737977740568,
          0.052752652992090684,
          0.01729120487403538,
          0.11002992940053301,
          -0.010081003678288212,
          0.010433123522224077,
          -0.04596927768343625
        ],
        [
          -0.0887627248685781,
          0.10335843995321066,
          -0.026760669915778246,
          0.05584065565335694,
          0.004955799565251233,
          -0.08351850723127324,
          -0.013760498567075832,
          -0.0023376721694507155,
          -0.04476069686128361,
          0.04867686309120478,
          0.06816460469907418,
          -0.11306178877664817,
          -0.09540430161812495,
          -0.08637330357812424,
          0.03162990572212009,
          0.04610439298683909,
          0.12020550297520842,
          0.06818526959783607,
          -0.00265427406400074,
          0.027369070236924205,
          -0.04571598795766709,
          -0.08080713275796389,
          -0.012448569415996502,
          -0.007200317325289143,
          -0.01818710876260791,
          0.048922909886665596,
          -0.02305416077733366,
          0.04831613457520027,
          -0.022916106174999205,
          0.06828726215451521,
          0.0709514396794029,
          0.11037843172692159,
          0.08260869640593302,
          0.008040488666699333,
          -0.024058896865293864,
          0.03009249182013032,
          0.18767042273574291,
          -0.08078402748774349,
          0.05701641308879052,
          0.1046515943593841,
          0.011288733652009192,
          0.0336638246216232,
          0.12265881723292839,
          -0.014513663419953008,
          0.011708126308951237,
          0.008422424265795382,
          -0.052508775399322305,
          -0.07551679227266254,
          -0.029199423700487042,
          -0.029002026779908163,
          0.05309220480838402,
          -0.07833090016209565,
          0.1761675550386602,
          0.09413490109770116,
          0.06043268381335616,
          0.014761743574209183,
          -0.044564739045788074,
          0.08100029103457825,
          0.06574049280018479,
          -0.05132627438628811,
          -0.018822317501074083,
          0.11881783360470084,
          -0.1401957353880787,
          0.05814283653313413
        ],
        [
          0.10923061802080129,
          0.01724299559312492,
          0.013544168407351106,
          -0.08689409868744451,
          0.04905485168841429,
          0.0705361548664307,
          -0.01638953455095184,
          -0.03729704389934878,
          -0.01912813775043651,
          0.09117249370716449,
          0.09943415925171618,
          -0.1287471291115175,
          -0.020831539854898835,
          -0.11868610410089339,
          0.08415448499674266,
          0.06885973872526005,
          -0.06435219721516179,
          0.12228663175538869,
          -0.06613884227991211,
          -0.04375975786124133,
          0.090761666397995,
          -0.07855725871974265,
          -0.11796876542724102,
          0.08203906368734591,
          0.045295379092153976,
          0.23594830207505157,
          -0.003771560218872586,
          -0.015315677685590062,
          -0.04868466603389019,
          0.03632924986379633,
          0.05739972867282291,
          0.11620909885899175,
          0.07894966374214248,
          -0.13173845050874022,
          -0.18222756538710042,
          0.13299957678891186,
          0.0918561766062263,
          -0.14229610770275242,
          0.011939331473533831,
          0.06439918539538127,
          -0.047179576675691635,
          -0.08983857358966112,
          0.0021093006469573863,
          0.011061992281557773,
          -0.07204131566146735,
          -0.09146263634431423,
          0.04693873641063237,
          0.040810490876833166,
          0.010532561446068877,
          -0.010734993110972438,
          0.057607965701973074,
          -0.10393566991057518,
          0.2376935185331981,
          0.08706485643477535,
          0.034508285376479576,
          0.02978914480457653,
          0.012810819854434604,
          0.009679261664506009,
          -0.017509821194837308,
          0.019635580882234393,
          -0.12569729579234537,
          -0.07004117889072373,
          -0.04492550401505185,
          -0.012963280804026455
        ],
        [
          -0.14681624473159843,
          -0.04316305710113749,
          0.07788691333870944,
          0.010742782127746807,
          -0.1351597109244504,
          0.06449952391545796,
          -0.03618540445594631,
          -0.015421540151387752,
          0.12153909318003155,
          -0.03554610804674764,
          -0.04981542920771286,
          0.13888022647054027,
          0.006156372861522174,
          -0.04512584853700229,
          -0.004196042774759879,
          0.07712668525546039,
          -0.13766757994046463,
          -0.08411051331248517,
          0.0015541442746599334,
          -0.0366917003036504,
          -0.03121509555651857,
          -0.009449334683572846,
          0.11349302321443577,
          -0.05056254248301016,
          0.028940357175124456,
          0.005617003474327874,
          -0.018520715483608445,
          -0.004151965973838778,
          0.15317830415969214,
          -0.020680682222022205,
          -0.010165808765114637,
          -0.04075379885484583,
          -0.08235080631776354,
          0.10100382163920672,
          0.1454623850652938,
          0.026985727900479164,
          -0.1056791865128419,
          0.09805772561927432,
          -0.05973456348229307,
          -0.0032596963445467304,
          -0.010913019125811455,
          0.0280643868589138,
          -0.06432491492043252,
          0.12006293313756083,
          -0.06462708637299756,
          0.013563822331130121,
          -0.033890761977484536,
          -0.026231268111115095,
          0.06561596066221971,
          0.05013779786528818,
          0.0821188041306693,
          0.1020301791114277,
          -0.044524310081777,
          0.01422378783461038,
          -0.01579287305373543,
          -0.08165701124610099,
          0.050857644139659375,
          -0.06613307090897538,
          0.0020600136272735923,
          -0.09229522475700176,
          0.023179898561156268,
          0.0011106739959497306,
          -0.0353439149359609,
          0.03810864872532627
        ],
        [
          -0.04141029777623603,
          0.05981653772770382,
          -0.03905026478565809,
          -0.011184707197891197,
          0.018039413173797487,
          -0.026987787375541503,
          -0.01446923950135152,
          -0.00596614626777052,
          -0.0658376298580657,
          0.007180103580281392,
          0.09262327835350526,
          -0.12708246859401565,
          0.027669532232355402,
          -0.0504746167473652,
          0.027872710627333427,
          0.032089613397070525,
          -0.08792042389812416,
          -0.06048240212600047,
          -0.06950961413978335,
          0.02237155001206639,
          -0.021008152353508436,
          -0.05757335260659022,
          0.0427380474456527,
          -0.09123828589619261,
          0.025683663373325488,
          -0.06367621963769153,
          -0.028127842392073703,
          0.03902730870084898,
          -0.01774529619691701,
          -0.07949072401434691,
          -0.005784066552385451,
          0.017913609091590493,
          0.0725897865858854,
          -0.023784332502780337,
          -0.07526947681283536,
          -0.04190888518000228,
          0.008716595909271888,
          0.006667740887284624,
          -0.10232993960186955,
          0.08006598693028211,
          -0.039248781018481047,
          -0.04989723132409503,
          0.07487483843447369,
          0.06968864216514405,
          0.009716785155875844,
          0.09876410664973093,
          -0.014531448525703643,
          0.015599506958769056,
          0.045726173719712965,
          -0.041135389580297235,
          0.10451262458689602,
          0.0030463642203627213,
          0.08077616087226956,
          0.0006604398955819627,
          0.009457515654370894,
          0.07132268187011588,
          -0.1088842768895862,
          0.08153552004594258,
          0.06625199068338582,
          0.05030401580622513,
          -0.16443076633610468,
          -0.03611605490952295,
          -0.013983827791185649,
          -0.028532302190203213
        ],
        [
          -0.002143047378594999,
          -0.08839710777618151,
          0.005981881001445117,
          -0.036165774038873756,
          0.08057585398138134,
          -0.051065259203261215,
          0.05297673488609052,
          0.002807048414828337,
          0.04811073655672679,
          -0.06349036233376944,
          -0.003584094070306514,
          0.22142999158568008,
          -0.14362651034165227,
          -0.08486693240451645,
          -0.10334020524678159,
          -0.060679303360287554,
          0.06520966201579764,
          0.13000275802283107,
          -0.021398369549063084,
          -0.08202063332140241,
          0.06864802008787367,
          0.11553895970769568,
          0.01739990837432598,
          0.03833061260441347,
          0.02207726022905203,
          0.006644603282200904,
          -0.06251745838544993,
          -0.04608256202610384,
          0.03963085343986368,
          -0.14338384396542672,
          0.14058086182250135,
          0.011733854041771496,
          0.016919088989287175,
          0.11871870605918629,
          0.05021944326404263,
          -0.024288167881532322,
          -0.05614018145172283,
          -0.027752862968780885,
          0.10847646286114992,
          -0.016945540808998318,
          -0.08733399148328193,
          0.08394378269481007,
          0.04339977561524373,
          -0.06559610367192262,
          0.018226773335386182,
          0.005224195841423168,
          0.07275309136219697,
          -0.019019052806311394,
          0.027042096228279085,
          0.03939696271436227,
          -0.04441086903707856,
          -0.0883526516692293,
          0.0859278852113993,
          -0.0077903455131950105,
          0.08733432874599525,
          -0.01979157433046671,
          -0.025934359780742235,
          0.10055973185522514,
          -0.060172188343252546,
          -0.10171512297977356,
          0.08639798053704678,
          -0.07511795114229528,
          -0.002234466954200281,
          -0.14146129993931952
        ],
        [
          -0.08705550352232475,
          -0.10422377905276776,
          0.03162320210110166,
          -0.0024832318151199713,
          -0.17453416785847714,
          0.08366704282324065,
          -0.031337960884358085,
          -0.0766013427465729,
          0.09977585032574571,
          0.06027564910084421,
          -0.1302927227906966,
          0.18658279876384087,
          -0.03622281114337748,
          -0.018021502321170894,
          0.013945350775187175,
          0.13101017400499312,
          -0.028943254856358833,
          0.07973350691777646,
          -0.025085901901110305,
          0.05384377589722025,
          -0.003523191276328242,
          0.03147838560436811,
          0.1401750225361412,
          0.010588364994846968,
          0.09776616082832873,
          0.18703322677891732,
          0.039301690642388344,
          -0.06473326965548826,
          0.0670967846346131,
          -0.12206208883232489,
          0.030616654597518604,
          0.07397190196485387,
          -0.025498199578996125,
          0.06172762333722107,
          -0.006030189382859315,
          0.09004353844639754,
          -0.10965592423753881,
          0.06302040936525032,
          -0.11710287953574683,
          -0.037329584130567035,
          -0.05504935222441449,
          -0.014593513625662266,
          -0.04663921303586582,
          -0.03945061777471384,
          0.010461440800590355,
          -0.02901644557387865,
          -0.01668340909733461,
          -0.051388747290972425,
          0.00030634364929532117,
          0.062493641131320866,
          -0.08284985569354772,
          0.04324188396287345,
          0.001874939373906939,
          0.10326139538967118,
          0.059918031894588976,
          -0.06281094063768854,
          0.029750016751717873,
          -0.029114252913520832,
          -0.019530651708074935,
          0.08697863124927906,
          -0.0011005768607544077,
          0.052363962984762806,
          0.035604148725455,
          0.09383423545669851
        ],
        [
          -0.01163529507412104,
          0.07330844713473579,
          0.037369742038001884,
          0.072568727795636,
          0.08246245430784141,
          -0.05327425911903389,
          0.08035658354779564,
          0.014474362263762563,
          0.04494092027673377,
          0.0007837441343919123,
          0.03466625776193747,
          0.04299617561480347,
          -0.06960948561501619,
          -0.1717440170885103,
          -0.008540043771408538,
          -0.024036794484575453,
          0.10844861580224734,
          0.022270144791448288,
          0.07326984905228427,
          -0.0007025897438015153,
          0.023909967531587858,
          0.022318273600980033,
          0.127407586998883,
          -0.02332282980192365,
          0.07138627862889625,
          0.010044909024091178,
          -0.07124697541313368,
          0.050359491601999484,
          0.024321862034182365,
          -0.13696017605224206,
          0.0891653304109415,
          0.04503806247032016,
          -0.004811764773689663,
          -0.17178677294584635,
          0.0616985588491347,
          0.01366193968938021,
          0.09393201188592903,
          0.03744945168842289,
          -0.031647808781594546,
          0.07093699831348647,
          -0.012708667587492683,
          -0.0063672510656137184,
          0.051838527568555545,
          0.02060069873777254,
          0.06122421585490674,
          0.06388585660710014,
          -0.009014921167530337,
          -0.06508952469820165,
          -0.0060332556532316575,
          -0.11066899909984212,
          0.01856177638980822,
          -0.020818262631818255,
          0.030826255896720764,
          -0.001689867485457393,
          -0.013530547343094177,
          0.13585300536992526,
          0.068994933988042,
          0.07070317404048637,
          0.06895229248237982,
          0.13687698373666063,
          -0.014148618805116836,
          -0.04262941112033393,
          -0.024019920900214115,
          0.018816803502234362
        ],
        [
          0.08589274292407204,
          0.02589983323942916,
          0.06698090369260588,
          0.023209146637244875,
          0.1078608422578995,
          -0.0274264823815967,
          0.08457798550514715,
          -0.016166484724525528,
          -0.02549212094035622,
          -0.0479582673803605,
          0.07534005439893772,
          0.025218436454094186,
          -0.08121076851557835,
          -0.10123400574654022,
          0.04129007603565901,
          -0.04488748321887182,
          0.014812350241355184,
          0.013657536730062916,
          0.04585541280224139,
          0.03766312434367844,
          0.03838584864236235,
          0.14844945873809326,
          -0.18004421742288285,
          -0.009471924355147307,
          0.17335641942450705,
          0.025503391500428133,
          -0.07286952331541856,
          0.03575782358119591,
          -0.1386633403034911,
          -0.05783492264052217,
          0.019254786917134795,
          0.031211950361762462,
          0.03968084586565487,
          -0.01565870596111855,
          -0.1814469580818339,
          -0.033467358867670285,
          0.015317020562709262,
          -0.01890468739533052,
          0.07190238350890486,
          0.0826354112401361,
          -0.1031449936681482,
          -0.09494855098183008,
          0.08853466102222667,
          0.10098288334114872,
          0.0403309023241393,
          -0.07307073980686253,
          0.05235936090191218,
          -0.06471477296441235,
          -0.1043132342825575,
          -0.03254299123486422,
          -0.03516362827084838,
          -0.09839428248153195,
          0.09748677752735334,
          0.00962616430819511,
          0.04675421193614928,
          -0.025271709152307007,
          0.14894662687649188,
          -0.007111566270105678,
          0.02217398872347899,
          -0.010163919573932619,
          0.13732612570730365,
          -0.022621830460286617,
          -0.035981861493930435,
          -0.06323734450240312
        ],
        [
          -0.016889623089698203,
          -0.005361973571468687,
          0.1617820052792681,
          0.046521624185904886,
          -0.11035147329533676,
          0.01781445125712437,
          -0.042908623948019566,
          0.003937214220096789,
          0.059236431017840215,
          0.14086453121123985,
          -0.025484864191429327,
          -0.04872498295979101,
          0.008359452922071024,
          0.00023452173256206143,
          -0.14977186945580773,
          -0.03343948663659403,
          -0.05540208290811338,
          -0.01628506267877039,
          -0.003765998485850445,
          -0.0518084957136185,
          0.04377039016426209,
          -0.015571687394648094,
          0.06256853256340218,
          -0.08634754670468205,
          -0.05730201662231464,
          0.03555951768782296,
          -0.05132337119748803,
          -0.012949533591673812,
          0.1123631362453383,
          -0.024042831491472707,
          0.01300805025204625,
          -0.09601339933048499,
          0.05549332256884063,
          0.11450636714455835,
          0.08659874683875338,
          -0.067724837275044,
          -0.12192491051218249,
          0.08741967166765187,
          0.07209925654872106,
          -0.011411572329502045,
          0.08865263911517057,
          0.03652410691320134,
          -0.0423332838188781,
          -0.0027549822947596603,
          -0.05805161887889352,
          -0.04695386326966107,
          0.030955060785317526,
          0.04864579360439808,
          -0.07100788566888934,
          -0.020399543146644133,
          -0.0028652960699080497,
          0.032757755765226104,
          -0.20334096063855406,
          0.007964583459508377,
          -0.026581701148761704,
          -0.025968728007846338,
          0.11779195393353545,
          -0.04040755902021507,
          -0.04205174979538121,
          0.005487631898907702,
          -0.05449698319971492,
          0.0007121445094215933,
          0.02237502075744243,
          0.02174620178268385
        ],
        [
          -0.053624093943182835,
          0.1234159709726231,
          0.0600775106072583,
          0.08934651649171332,
          0.045719807707903286,
          -0.005250069547729236,
          0.07672740523902549,
          0.012277158648734864,
          0.0879967890063621,
          -0.08339235845721615,
          0.022073260908525363,
          -0.12751308507757145,
          -0.06304448513171453,
          -0.08633460200046104,
          0.1159383335649381,
          -0.058731576141773524,
          -0.0073541826432177585,
          0.017561834217118072,
          -0.012175548376852988,
          -0.0073587409613148505,
          0.008462308966681086,
          -0.09747871624216284,
          0.030750893493126555,
          0.006729247824280869,
          0.03620394106611393,
          -0.03803613427050112,
          -0.09726435868877016,
          0.1553456458310338,
          -0.03854122475682126,
          0.05539268662388537,
          0.08355916709394569,
          -0.011145391813450478,
          -0.0034109042245444765,
          -0.06593561550349539,
          0.06565507461578925,
          -0.07898905177448169,
          0.024012622968430986,
          0.02220704303114563,
          0.020343661032620586,
          0.1146210594737933,
          -0.028998302556103497,
          0.01424210214207608,
          -0.0033220199172021253,
          0.12238230786608373,
          -0.04528966607059328,
          -0.04879676843337993,
          0.01330911252097087,
          -0.08061528880808709,
          0.048173309474257964,
          -0.07460805378356263,
          0.034439546009018954,
          0.01669766431113793,
          0.15426054397562633,
          0.05315869561741997,
          0.08217896716150683,
          0.04256731167298485,
          -0.0023264190456851208,
          0.04727722392464148,
          0.04713435374987915,
          0.006861651734309939,
          0.039308514626468435,
          -0.10370523234680673,
          0.02585562935173777,
          0.0377753364073836
        ],
        [
          0.06337230040040917,
          -0.012384693989124436,
          -0.044145652320491724,
          0.09753398326583403,
          0.0798529704819227,
          0.02077034800581459,
          0.04405886735591735,
          -0.0346192906653532,
          -0.023670206905831097,
          -0.24750680627651736,
          0.03931487858285236,
          0.07150557195791703,
          -0.060706291299047636,
          0.017880964672623154,
          0.1656271749717959,
          -0.22268285146445205,
          -0.0019808647405101377,
          -0.02317461452064002,
          0.10696996382910415,
          0.21791283853154725,
          -0.024381706075436875,
          0.07936140880888658,
          -0.09975934157394617,
          0.028996637006706107,
          0.2684385498162127,
          -0.00312407169971794,
          -0.08772640903503098,
          0.14044356112369719,
          -0.13521542944079187,
          -0.06841675662233782,
          0.0898994758436287,
          0.07894035758516009,
          -0.012178782234048651,
          -0.04985267389674327,
          -0.13533307361236502,
          -0.09819087011388195,
          0.03433966811545841,
          -0.06615263509732516,
          0.07652785767723173,
          0.07032702285592916,
          -0.012721780648433498,
          -0.040929401705289276,
          0.08346746681071913,
          0.0787840317447773,
          0.13618473576105378,
          0.02688412795081493,
          0.18785334199627698,
          -0.18535767386172336,
          0.0256893794112618,
          -0.058982529426807775,
          0.014408736228877624,
          -0.06859285449315522,
          -0.020703869499687715,
          0.1170853682339788,
          0.05966869494971999,
          -0.0530651584848839,
          0.020198086660940195,
          0.07519618083185625,
          0.032640981788017796,
          0.051894472736477425,
          0.004916170680781017,
          -0.09838160427278818,
          -0.038436062528721324,
          -0.11083671586837834
        ],
        [
          -0.06651475473587658,
          -0.0197915101596084,
          0.0015364321399534368,
          0.025233319703267983,
          -0.10367151390386024,
          0.022319758193670537,
          0.10712767652543093,
          0.04630363244313401,
          -0.01473301848226918,
          -0.145452960985421,
          -0.07616652296371287,
          -0.0775178290374533,
          0.05736246169934166,
          -0.084195397328239,
          -0.1233940844473692,
          -0.06037028078206958,
          -0.025681225814884873,
          0.016803295807554124,
          0.02208516168311179,
          0.02813338667125346,
          -0.05040938325885329,
          0.039038588208676964,
          0.02064901156530363,
          -0.07272320199377735,
          -0.04688818471914617,
          -0.1046313346433402,
          0.03199524123321794,
          0.16227137648245485,
          -0.013375254404519754,
          0.018760581313723088,
          0.04220705895568831,
          -0.06636782570790342,
          -0.035854257574626076,
          0.005500567475214396,
          0.11492592873899986,
          0.08226875514560769,
          -0.15527384793840723,
          0.07195856836420349,
          0.003497991277622917,
          -0.03015856737309506,
          0.07838206070968086,
          0.13405098063096657,
          -0.0010715942362549313,
          0.046139792327630894,
          -0.03591326686807268,
          -0.04631925900978921,
          0.05685608966337618,
          0.07072140253260296,
          0.001056738074994048,
          0.08854753783030922,
          -0.08434064463162906,
          0.11416441998304006,
          -0.12643557094632613,
          -0.10313157450680033,
          0.018794515976959313,
          -0.05684274973001969,
          0.021356587831327694,
          -0.11898815259593223,
          0.029859366851922964,
          -0.0028600598301765806,
          -0.0508682599916484,
          0.0052806044039767856,
          0.07905098887380345,
          -0.025930665092772552
        ],
        [
          -0.10243288596697647,
          -0.00230717788974552,
          0.08871848101390696,
          0.1501587694718269,
          0.028075929395335573,
          -0.06857854301103317,
          -0.015311661662095993,
          0.06513242601713572,
          -0.043030714436566274,
          0.040046788657082714,
          0.09891238443097153,
          -0.061277446146445654,
          -0.004178148456481157,
          -0.06801692296513756,
          0.10081225031835944,
          -0.0792434769156653,
          0.04421468067816236,
          0.013836870707757064,
          -0.022396223236195213,
          0.05789054480057278,
          -0.005036514505133313,
          -0.07250244738056333,
          -0.04083086072400446,
          -0.04594595694045151,
          0.13121385944145877,
          0.1183923499564331,
          0.014706358834080058,
          0.12517461726259746,
          0.014898851362457815,
          -0.015682865258553783,
          0.057094784132293463,
          -0.06187132650793787,
          0.01272982976783635,
          -0.10702894108299595,
          -0.04282604958097184,
          -0.09759596307305031,
          0.05824474123659913,
          -0.03181341303527374,
          0.04676338016225797,
          0.005491533015629716,
          -0.020368760967612004,
          -0.01006224337790663,
          0.0491498568727314,
          -0.0180184190183306,
          -0.04963128835215521,
          0.08754048732790998,
          0.045140293263994886,
          -0.01347320682051461,
          -0.14157245014861777,
          -0.07208665070287047,
          0.013712607577112268,
          0.0068705669542704914,
          0.051775170556751716,
          0.024892243085080756,
          0.0611788904681615,
          0.030753997278234472,
          -0.048455171549728136,
          0.10403105314647494,
          0.09732710958883636,
          0.022812392585369184,
          0.021023584995942368,
          -0.06641023943258044,
          0.025445917171201777,
          -0.007952588473737483
        ],
        [
          0.06675077855918907,
          0.0019010263129333798,
          -0.06815665083172266,
          0.06133157258865084,
          0.019978489343010008,
          0.0006686432844656508,
          -0.02588484305832433,
          -0.19302618353602277,
          -0.03463318064051431,
          -0.2695517142495867,
          0.005735858184347638,
          0.1179370382893036,
          -0.011062649840896107,
          -0.04544319643089641,
          0.16590936266504688,
          -0.09768703216966466,
          -0.06276189787022257,
          0.020127618383895755,
          -0.02805176960621667,
          0.1417828097752322,
          -0.00771511914880487,
          0.120967065397904,
          -0.08710007975252831,
          0.026207854824000537,
          0.20031718298337978,
          -0.08337982313090905,
          0.01453856792942613,
          0.0728720152803732,
          -0.10278256817807574,
          -0.10567788818733964,
          0.11872121107179456,
          0.0327418606721132,
          0.026199774625789558,
          0.09588855697726331,
          -0.06906692501575601,
          -0.0605415429394043,
          -0.05251627717051078,
          0.11568102828113494,
          0.09289410377133947,
          0.07298088121887694,
          -0.052461795222518544,
          -0.13286503333460695,
          -0.05979853039956542,
          0.07855051184708557,
          0.12147979395780618,
          -0.007919297903289324,
          0.03199344493830678,
          -0.17380995592913487,
          -0.03620398547459567,
          -0.11089716520726761,
          0.06904345391659035,
          0.025888395347627477,
          0.22079388007429754,
          0.21851399655848433,
          0.08384801258553805,
          -0.11507261443593826,
          -0.12379846373643937,
          -0.021337537987750482,
          -0.0022996523676119163,
          0.11838879709466728,
          0.05291992095548859,
          -0.032466038407696435,
          0.0255813065043349,
          -0.05710986615354899
        ],
        [
          0.0012480425590289017,
          -0.05267657170753567,
          0.04197867826233723,
          0.0002710938260900839,
          0.02737501862137172,
          0.07380172078095536,
          0.054064891198749784,
          -0.03207514754459064,
          -0.021538359120982186,
          -0.1135181191686164,
          0.009993393064158394,
          -0.029904385817379052,
          0.02838022910687014,
          -0.09150809880603805,
          -0.07789821367226718,
          -0.033346703482319856,
          -0.044190607314678325,
          -0.05386517540149989,
          0.05791860851127405,
          0.11314208395002491,
          -0.0327266162461949,
          0.005623021043257311,
          0.04057050265264986,
          -0.08704754389379553,
          0.08819350494781648,
          -0.09702062199566995,
          0.031075578305900728,
          0.08509329863505295,
          -0.06991028894777444,
          -0.09686201108446794,
          0.024892297713417052,
          -0.03373108867883156,
          -0.07592657157533779,
          0.03585603422598368,
          0.1666344171052535,
          -0.000544758243382853,
          -0.07709937089235759,
          0.06773002676213317,
          -0.046066419385776054,
          0.01062246639806318,
          0.11761897254833649,
          0.1035944216887998,
          -0.014784246298533666,
          -0.01387131911931785,
          -0.05045852497586121,
          0.08930506483004406,
          -0.025421926923093183,
          -0.08716123958641306,
          -0.02273587549570597,
          0.15216941017767702,
          -0.02617290820147104,
          0.15176406947643825,
          -0.057241477862209594,
          -0.19818292346337252,
          -0.014678395879015363,
          -0.06350125627147864,
          0.09669034137300477,
          -0.021853347640217152,
          0.015842184144224475,
          -0.012900890241425522,
          -0.019837101225250425,
          0.003991191807602457,
          -0.02833375387770677,
          -0.047682555918884574
        ],
        [
          -0.08225603020031481,
          0.07288350623841544,
          0.14006459077210637,
          0.08107311183772879,
          0.02312610296413777,
          0.023604446727483946,
          0.05152930850717981,
          0.09549881028674294,
          0.061681717671768284,
          -0.004661450991006843,
          0.0400093496282099,
          -0.05676066596828039,
          -0.01786567770936362,
          -0.08973957801910305,
          -0.03570249992189392,
          -0.11719030521233739,
          -0.04307626350001348,
          -0.07167753243076994,
          0.01333904820597577,
          0.05130465376817127,
          -0.0734062760691985,
          -0.0018830949556004248,
          0.09525625301302505,
          0.0020031707170849312,
          0.12950322352489382,
          0.13025976205436257,
          -0.06216392688219562,
          0.11568645597024821,
          0.07593581916223562,
          0.011271621109692391,
          0.07795201201212008,
          -0.051228098098421604,
          0.02998825323581322,
          -0.1422231256382415,
          -0.07620853223683069,
          -0.04170930378749766,
          -0.026071062663792038,
          -0.06364667459362305,
          0.014233655172579402,
          -0.003476088884935272,
          0.0022209130346369484,
          -0.1146326817889499,
          0.017592792704702518,
          -0.01662816133088122,
          -0.0406130742694876,
          0.005969663561030958,
          0.047027318040628874,
          -0.06837325245601386,
          -0.05564223244849451,
          -0.05060688026424799,
          0.0685211575838527,
          -0.018331851031384974,
          0.12201278719187142,
          0.05261761760431574,
          0.01652827527800136,
          0.03555373094449273,
          0.03279986598499312,
          0.08490612440292326,
          0.10591615906022812,
          0.06361786010892434,
          0.017827442580658347,
          -0.024843685301047868,
          0.029110435958366467,
          0.02034553397496325
        ],
        [
          -0.1282085514755418,
          0.10641828142649207,
          0.01246386617326079,
          -0.028688882014894675,
          0.01922121027338873,
          -0.009376608460839665,
          0.12451085630684088,
          0.03323608374419303,
          -0.05507324582109748,
          0.033266567004632125,
          0.010452603000552112,
          0.21215940231504782,
          -0.14789943458186183,
          -0.18217298655244615,
          -0.03353533231578513,
          -0.0076246493757249865,
          -0.009951533871442387,
          -0.06645744963049302,
          0.059459997268968244,
          0.11883918310709642,
          -0.07154685284820513,
          0.13892844338207153,
          -0.013050911832849111,
          0.10392058407801841,
          0.10219504620222905,
          0.012226682458686598,
          0.06013097756042129,
          0.056354836366309245,
          -0.006753985693390262,
          -0.07957422593481765,
          0.018262624002166678,
          -0.07813385842062821,
          0.1257786372622229,
          0.04501181978191619,
          -0.10190910115516891,
          0.01425053997880006,
          -0.07658797601179755,
          -0.11118633466151198,
          -0.010124209868867586,
          -0.011556016178801112,
          -0.0512539911076605,
          0.06429193135161529,
          0.006071614270242477,
          0.026393851297775234,
          0.07336029787226803,
          -0.00991115359698599,
          0.05883528455002148,
          -0.07398290895208601,
          0.05818011616578661,
          -0.004659953904318675,
          0.04523893641311461,
          -0.1498327972395855,
          0.02966641355958074,
          -0.05004407175846423,
          0.0545923482127021,
          0.012400672176847857,
          0.004256796900461985,
          0.08082370108423267,
          0.06329453221972409,
          -0.012949654264902397,
          0.07867425299998426,
          -0.07936273708122626,
          -0.015483004539194793,
          -0.0354933210001711
        ],
        [
          -0.09182836299661745,
          -0.055824853864710124,
          0.048959463575789335,
          0.06939437936960248,
          0.0016258836708060234,
          0.0261828356530167,
          0.11026676078464576,
          -0.018136241664959647,
          0.08808167641667927,
          0.073952734940754,
          -0.04236670475295542,
          0.21457788308910075,
          0.02939495487207432,
          -0.07767069805864096,
          0.11254686406037769,
          0.01610703548294952,
          -0.034229833624100765,
          -0.141169411441901,
          0.05391550267073504,
          0.06643690489273545,
          0.06809008676867528,
          0.10935917524016199,
          0.13637183545273004,
          -0.002254958213538668,
          0.12311838641630776,
          0.02473398037055524,
          0.0077104418622771205,
          0.01923126954758654,
          0.06283744195143524,
          -0.11244770298114415,
          -0.013082244793311288,
          -0.03468572125046686,
          -0.0466092260316129,
          0.1214621568956127,
          -0.035453669258004604,
          -0.027520267926636525,
          -0.12580173880258214,
          0.12700964476243112,
          -0.10504910058853041,
          -0.013601856241261031,
          -0.0032620683722088474,
          0.041464622232674685,
          -0.12895304906663066,
          -0.003932650307891628,
          -0.02786133702128969,
          0.03893322716175933,
          -0.019597188965434508,
          -0.06056202458375456,
          0.08724738898946002,
          0.09676197817333586,
          0.0025813193777574797,
          0.024164342538505107,
          -0.04625021661772291,
          0.08872102761855562,
          0.01743520521045964,
          -0.10676803831803719,
          0.07696936241481919,
          -0.10282516697342495,
          -0.0867138497640748,
          0.044714134437518115,
          5.1979926396959854e-05,
          -0.016486647828389035,
          0.015949410772783595,
          -0.0157651742659918
        ],
        [
          -0.04311245647658621,
          0.08282627153655074,
          0.03353447883336859,
          0.12730033362045473,
          -0.022468292565653997,
          -0.10208755978831636,
          0.011671937864488552,
          0.02626072633470951,
          0.09850300103215341,
          0.050029124260757965,
          0.007725620579594176,
          0.01296495319262861,
          -0.09012471943900106,
          -0.1665808508284873,
          0.21454680938248477,
          0.027743397664159727,
          0.0478185237083279,
          0.060853522696324436,
          0.12111311739499968,
          0.06554987387401158,
          0.07339479638070506,
          -0.039129997948651275,
          -0.0444524161280706,
          0.082281860231969,
          0.1263717571030756,
          0.06224726288924294,
          -0.010864209961384708,
          0.05520556174451044,
          -0.004512096291218998,
          0.04781324903785914,
          0.09411005399872381,
          0.03703349109267113,
          0.04956504496062531,
          -0.08929174659727553,
          -0.0384463664240503,
          0.07327484184942694,
          -0.008859775078047956,
          -0.026050317564841715,
          0.08943477011173552,
          -0.006439766291890983,
          -0.01785000497836576,
          0.007720697051802907,
          0.10398718639327362,
          0.04248914565029915,
          -0.08093057917491656,
          0.07448735994606587,
          -0.04862072468835082,
          -0.063498743589476,
          0.03373059010333296,
          -0.1124339219484999,
          0.09511562907580295,
          0.10827464047284201,
          0.10181882066812778,
          0.0805356520981229,
          -0.037453787048928204,
          0.00044821878997914504,
          -0.030422553612264466,
          0.011938528560459936,
          0.01869696030775682,
          0.020578227043172935,
          -0.021481973140463247,
          -0.11297452037168605,
          -0.10217298352330739,
          -0.0630631288499754
        ],
        [
          -0.00933058080868181,
          0.04110000197130658,
          0.011228095961180507,
          0.08466919010876531,
          0.051894290634794345,
          0.05765834670872326,
          -0.057300668602912906,
          0.11693082423655443,
          0.07704263967173294,
          -0.05181735336946474,
          -0.02883343201044707,
          0.1108279610834275,
          -0.1721422304394472,
          -0.08171025661421355,
          0.09579941707890346,
          -0.007590692770035359,
          0.0076500768897630675,
          0.09089883968377349,
          -0.0024665026231389924,
          0.04773510976740018,
          -0.00012323036821349856,
          0.04904844569836171,
          -0.02556946775324737,
          -0.05282335579448146,
          0.19377537183903396,
          0.005861165305954294,
          0.06022468896458039,
          -0.04741712504820127,
          -0.003968377028060214,
          -0.1333605010119234,
          -0.04702173718541927,
          -0.010968442041944167,
          0.058522870752636236,
          -0.054024593612056165,
          -0.02260223207870514,
          -0.06910090410125828,
          0.018903192926167968,
          -0.03280023835584467,
          0.026239527830852802,
          -0.09053520039517426,
          0.03563013303316697,
          0.0004798066491901276,
          0.005152157591979911,
          -0.06260228771112147,
          -0.02078923741189684,
          -0.03695547814755631,
          0.10269813226959508,
          -0.04933689902199373,
          -0.05379738840874119,
          -0.0615536014510579,
          0.11754070040738959,
          -0.10396281457288398,
          0.012628091669089882,
          0.11776181071716292,
          0.040082065723705686,
          -0.006474761754713704,
          0.049186604738279814,
          -0.05875329831164005,
          -0.05759862344754338,
          0.005075698388632945,
          0.041103323591715236,
          -0.03934426115098416,
          0.04323903490528994,
          -0.05579203614333082
        ],
        [
          -0.0690804168699315,
          -0.06023532038806287,
          -0.032551320676632856,
          -0.009444267326840991,
          -0.11837622978848383,
          -0.031020804176968883,
          -0.0030551425231847675,
          -0.05922559079115335,
          -0.023390232931286083,
          -0.04146509284684944,
          -0.016705051311153428,
          -0.028321524152575606,
          0.07226504570886415,
          -0.012134936851075613,
          -0.10896682919165018,
          -0.024920648194907427,
          0.05365668339859866,
          -0.077651991377803,
          0.06736696032585446,
          0.10086683052454502,
          0.06906410123691333,
          -0.042147377214306066,
          0.17192505548821516,
          -0.007412604407056295,
          -0.00839307948495475,
          -0.015504434480542126,
          0.05466663361951196,
          0.013634446415773632,
          0.053752892564497695,
          0.07111647302011352,
          -0.03814770488809678,
          -0.1106513063309869,
          0.03585063545716567,
          0.05125660922004404,
          0.11310536043584109,
          -0.09400420844471516,
          -0.00513060049233106,
          0.06896194382328787,
          0.06894717640731228,
          -0.08427872094928032,
          0.03802579899423942,
          0.043538932453226833,
          -0.10082714849921813,
          -0.03486280936510427,
          -0.03544798349726416,
          0.00670557029499623,
          -0.049014015520042954,
          0.00604541458560862,
          -0.006483085151588801,
          0.07225867103873752,
          -0.03734233649593392,
          0.08152857291497716,
          -0.022225727967931957,
          -0.044601413657553816,
          -0.06570902776201955,
          0.03409020767512306,
          0.08800956977053742,
          -0.10092458498932262,
          -0.10750986090364655,
          -0.06337709639648251,
          -0.057842381111128244,
          0.032831079898524414,
          0.030621703607591394,
          0.03501886606790445
        ],
        [
          -0.10389067161452728,
          0.06440992407704717,
          -0.03612555962946009,
          0.05945069960458958,
          0.0023941152069444993,
          0.1102232767173912,
          0.056905293726240654,
          -0.03772655364697911,
          -0.029600166234619488,
          -0.044252322122267755,
          -0.04237506153202873,
          -0.05381443686730858,
          -0.08291426055260209,
          -0.0579970129691995,
          0.06555665263830406,
          -0.04782946420338082,
          -0.05389894675859027,
          -0.019107832806885917,
          0.03511564409739698,
          0.04497026112614765,
          0.07522903706093034,
          0.004521078505947183,
          0.06840523844916,
          0.012586724767208034,
          0.06632183309928999,
          -0.031574142650633984,
          -0.1054678771625711,
          0.07388648947627807,
          0.09853657106462001,
          -0.011894535425858672,
          0.08643251693972064,
          -0.04975738590117783,
          0.0279669366963183,
          -0.18061868929252617,
          -0.002350722381263232,
          -0.0005652219491091013,
          0.024816741593807735,
          -0.0730934424663425,
          -0.0025235592552251703,
          0.01197555120635511,
          -0.043870043185462074,
          0.060840273724156284,
          0.06021211671877051,
          -0.004224049981162717,
          0.04811134571683993,
          0.12642892305009804,
          0.03158371902427517,
          -0.026173465822719417,
          -0.0863378206236344,
          -0.11500054727895105,
          -0.05427891484145935,
          0.015602185124283113,
          -0.036599146032287984,
          0.1094525001571712,
          -0.039204918733255316,
          -0.031720906688348344,
          0.03669537042223963,
          0.030893119015849922,
          0.06469945007893979,
          0.1442360437349321,
          0.03498552932247767,
          -0.004379792458952066,
          -0.046419671726649944,
          0.024803319921817578
        ],
        [
          -0.09473823338610739,
          0.015892315032294685,
          -0.04776003716385005,
          0.025237161513717514,
          0.059260153062736534,
          0.04301722061514411,
          0.006998225281001064,
          -0.03457466885705638,
          0.07241650643389466,
          -0.17913499295456176,
          -0.005039154984295857,
          0.17932443984933763,
          -0.2034310729574286,
          -0.08432243814515909,
          0.20328466067645493,
          -0.11664720473774384,
          0.13762410816897933,
          -0.08506274160673782,
          0.11261845678159686,
          0.10682660990117412,
          0.0709051128284761,
          0.09769447998003952,
          -0.028869976827961982,
          -0.04304664975705069,
          0.13369743249168098,
          0.000999997905373064,
          -0.07840528727974215,
          0.0423447167546728,
          -0.07902908149716299,
          -0.07707436273562053,
          0.014959912894561523,
          -0.17935123951780316,
          0.11663265325098247,
          0.020707760673658586,
          -0.14725109235385633,
          -0.06092014295582122,
          -0.030698707072166487,
          -0.09293499706659027,
          -0.023781073071871925,
          -0.07522640622247996,
          0.014962806546985912,
          -0.05041266479685413,
          0.08166846047540476,
          -0.04962649461419162,
          0.07419047587289301,
          0.036264095207177285,
          0.08010853349653667,
          -0.12770299335387358,
          0.03554335620472884,
          0.004338781296858703,
          0.15576733863331868,
          -0.030693516949276953,
          0.05012893843832398,
          0.14801346956548944,
          0.01905722241096483,
          -0.015467829919310295,
          0.14962037789168234,
          0.03753212021986376,
          -0.05765065771224037,
          0.04303710834614107,
          0.13475921617255615,
          -0.040364479320593595,
          0.012960299810561628,
          -0.03274283599533146
        ],
        [
          -0.09760129285769474,
          -0.008853050927866124,
          0.022651209185700887,
          -0.07894411911733994,
          -0.00936673963935079,
          -0.061754778205020386,
          -0.013618494462403787,
          -0.011283516917672917,
          0.0507360142401667,
          -0.06265766394047483,
          0.0028397568058891338,
          -0.12288871010581302,
          0.01063010021020432,
          -0.10284576623254006,
          -0.07320940381378598,
          -0.02333148129467794,
          -0.03191470963526337,
          0.04987603062650394,
          0.05026949418611222,
          0.05468068954004756,
          -0.007480477510851423,
          -0.023619912263621423,
          0.11052307368965109,
          0.04295934034577899,
          -0.0946903383578818,
          0.028371226559132916,
          0.025080421328357284,
          0.060724705667821836,
          0.07182573079208344,
          -0.06014320068570998,
          -0.03137948042713879,
