{
  "type": "softmax_regression",
  "input_size": 63,
  "labels": [
    "alif",
    "ba",
    "ta",
    "tha"
  ],
  "weights": [
    [
      1.1364831360338422e-05,
      0.002759975114310475,
      -0.002532635851234162,
      -0.008227775827139886
    ],
    [
      -0.004200498065154798,
      -0.00916137471644868,
      0.0005556395849066108,
      0.012381643442774978
    ],
    [
      -0.004547273755560445,
      -0.00573228740700026,
      0.004525429500066241,
      0.00329711790628692
    ],
    [
      0.20973413398749155,
      -0.2204848984462873,
      -0.05902865404037121,
      0.06831046690835874
    ],
    [
      -0.15312621130901552,
      0.016871123560501206,
      0.3486585550856663,
      -0.25852775908554115
    ],
    [
      -0.13458364472200718,
      0.2530263250173031,
      0.22091824889402478,
      -0.36775106509331806
    ],
    [
      0.2146763815847732,
      -0.3290320082838614,
      0.07182647133876494,
      0.014022390421066818
    ],
    [
      -0.18464356107868923,
      0.37572038202720526,
      0.16278977866651453,
      -0.37181784753124547
    ],
    [
      -0.11867659451275779,
      -0.03535374638182522,
      0.3224211406068999,
      -0.18256266249719402
    ],
    [
      0.21376748304209384,
      -0.34433679842677317,
      0.1232090649185233,
      0.008806691007026088
    ],
    [
      -0.05200716641837504,
      0.6806275092756182,
      -0.07525965496457454,
      -0.5623652209138744
    ],
    [
      -0.08157175454071072,
      -0.14156428991064637,
      0.24146327628065217,
      -0.011024940352760195
    ],
    [
      0.19449389271504675,
      -0.30725959022913113,
      0.18868837556586224,
      -0.06740550355473242
    ],
    [
      0.05054670365840995,
      0.38564229522792765,
      -0.005270492717237934,
      -0.42033728297236944
    ],
    [
      -0.07529399114662828,
      -0.2100634662188665,
      0.2398689316896657,
      0.05808612329010951
    ],
    [
      0.07033583623449546,
      -0.38757512584107573,
      0.030998290936194963,
      0.27404523632573724
    ],
    [
      -0.19612338228970044,
      0.15811093250730177,
      0.11248728290022349,
      -0.0627558424400903
    ],
    [
      -0.12940502806237203,
      -0.2236291326978317,
      0.4367635314999646,
      -0.11572880637618795
    ],
    [
      -0.17917733282771658,
      0.19671555150817246,
      0.06430672018517364,
      -0.06904066101080686
    ],
    [
      0.16903706115566272,
      -0.23105120046121305,
      -0.10978652195081177,
      0.1771363358006494
    ],
    [
      -0.11859021110229422,
      -0.21523705899027132,
      0.329908003382219,
      -0.0006989608541523789
    ],
    [
      -0.1959682749224993,
      0.21340983685726267,
      0.07536853514679426,
      -0.1091295684708582
    ],
    [
      0.13773608223418154,
      -0.07722341544533161,
      -0.1425746827422816,
      0.10482075214748687
    ],
    [
      -0.11392174309619145,
      -0.2213973363884823,
      0.3378085116204964,
      0.009430508887599266
    ],
    [
      -0.21220208242387958,
      0.2396667765617014,
      0.06261731852975917,
      -0.13320521250351275
    ],
    [
      -0.07523502996983149,
      0.1951436907280555,
      -0.06268849926410587,
      -0.046093208164245274
    ],
    [
      -0.11461941196804176,
      -0.2653819668972298,
      0.38021815188837665,
      -0.0072126594775093695
    ],
    [
      -0.13183761278600933,
      -0.03751020835995988,
      0.09692621573000292,
      0.08018230201231881
    ],
    [
      -0.17853018156497824,
      0.11471226541350919,
      0.04268635261214081,
      0.0014344708835788182
    ],
    [
      -0.10882648451018363,
      -0.22201690518038228,
      0.35869669469423165,
      -0.02261786355092396
    ],
    [
      -0.12330888556976678,
      -0.33214087893080485,
      0.46933781196705116,
      -0.03807528769465208
    ],
    [
      0.16823014834444358,
      -0.1298154221487718,
      -0.23570450242272364,
      0.17834589071342988
    ],
    [
      -0.09205007982917279,
      -0.3721115780272476,
      0.26591077259515145,
      0.1884962352971484
    ],
    [
      -0.06274530832746834,
      -0.8298618171720011,
      0.8586821720998498,
      0.04579623103580976
    ],
    [
      0.14641447032628296,
      -0.1109153427459114,
      -0.07152176471985061,
      0.02239817592503987
    ],
    [
      -0.04771703271460055,
      -0.4166385730930715,
      0.22419560541875838,
      0.23749198162493335
    ],
    [
      -0.042883350324109976,
      -1.026921771878609,
      1.0153880312480654,
      0.0470187088414179
    ],
    [
      0.052396370708629805,
      -0.08467556520230134,
      0.1862706291529522,
      -0.15437799928741208
    ],
    [
      -0.07597951474707695,
      -0.3227192800856479,
      0.19059231705079271,
      0.19676652445175574
    ],
    [
      -0.16910141806061557,
      0.0644512605127275,
      0.07519513341697427,
      0.018344780172596886
    ],
    [
      -0.06236372012460853,
      -0.018662757635743647,
      -0.21710411738231705,
      0.291076782734725
    ],
    [
      -0.10935728425440687,
      -0.18541939720645745,
      0.21513283163461724,
      0.062398554812664674
    ],
    [
      -0.12344329314039063,
      -0.070708480769507,
      0.025836822367044845,
      0.16600966224857552
    ],
    [
      0.18304108685005874,
      -0.18033578481503929,
      -0.20578371747360125,
      0.17530212731921413
    ],
    [
      -0.0471199970165524,
      -0.15303227387340085,
      -0.1849582882938035,
      0.3951465520589715
    ],
    [
      -0.05162180681006129,
      -0.20389790067952077,
      -0.33735851376345366,
      0.5871420879642675
    ],
    [
      0.17003134960443414,
      -0.151673496394361,
      -0.07835320051963544,
      0.07595768544232043
    ],
    [
      -0.03630566538704417,
      0.08056896292751414,
      -0.551210934681992,
      0.5012806199490845
    ],
    [
      0.005311649370895417,
      -0.23035410203610424,
      -0.5801826228099599,
      0.8250793223667073
    ],
    [
      0.15755550087154638,
      -0.20948201843481068,
      0.051552592733866344,
      0.02635201400830733
    ],
    [
      -0.10304991973801124,
      0.4621962760535634,
      -0.4749753340126395,
      0.12490752565133272
    ],
    [
      -0.15062288774616278,
      0.16795343695062226,
      0.0257145828214843,
      -0.03815234788152508
    ],
    [
      0.18144404104057513,
      -0.2481683400310749,
      -0.3159099479292703,
      0.3884471298685055
    ],
    [
      -0.11998459270941879,
      -0.16211040357736184,
      0.12796115414482678,
      0.122259991863964
    ],
    [
      -0.15269323253835793,
      0.14857983143733575,
      -0.06383443969571159,
      0.04410057602438401
    ],
    [
      0.19212602882714044,
      -0.2842535967881281,
      -0.08973883606542392,
      0.16083795460747466
    ],
    [
      -0.06031311088355439,
      0.001844654572444728,
      -0.39526347701288234,
      0.441701275459176
    ],
    [
      -0.1354272336615841,
      0.1396819300098716,
      -0.22542669277613145,
      0.19832274182587464
    ],
    [
      0.1849073397832768,
      -0.2757290819118473,
      0.07109957833457412,
      0.031992749811912836
    ],
    [
      -0.04167068242460213,
      0.15815651541785852,
      -0.6695548348083308,
      0.5469209405920553
    ],
    [
      -0.11339642692998833,
      0.20246919982861164,
      -0.41161834025744126,
      0.32514695273426003
    ],
    [
      0.16231058228371978,
      -0.3393683454479358,
      0.28833332284978713,
      -0.12382183339222942
    ],
    [
      -0.08412450577162002,
      0.263670705382253,
      -0.6924072361486082,
      0.45334240040654017
    ]
  ],
  "bias": [
    -0.11968344106410951,
    0.27061067854405574,
    0.147052570842541,
    -0.2979798083224885
  ],
  "feature_mean": [
    0.0,
    0.0,
    0.0,
    0.12369524633153367,
    0.23847185220471945,
    -0.06665873675261866,
    0.30302376533975317,
    0.3896271240941591,
    -0.1035327091539656,
    0.45312477010774765,
    0.3299630249975679,
    -0.13845091241113713,
    0.5426534877336178,
    0.1958197461562401,
    -0.16988431083092395,
    0.48034467673308107,
    0.23080886527270833,
    -0.08150798792016664,
    0.6050691481017265,
    0.3856862545820758,
    -0.1485569641707498,
    0.6775542607799634,
    0.3596907190355142,
    -0.19182541464646768,
    0.7606783392177441,
    0.30920479238970616,
    -0.2231516790680304,
    0.4363983370324631,
    0.08614587423757472,
    -0.09876720903772625,
    0.5334131614520973,
    0.2884505818185094,
    -0.170590181790108,
    0.5417445225373462,
    0.268600373416044,
    -0.1982343546174448,
    0.5750036065838202,
    0.22037144543251952,
    -0.2162244979770985,
    0.3654161600846606,
    -0.02750542514913031,
    -0.12449863970624703,
    0.43146798244682766,
    0.17180479310354413,
    -0.21343162004331787,
    0.37254097111374707,
    0.17424459626356603,
    -0.21927340870415488,
    0.3519118574671894,
    0.14546419614960251,
    -0.21149264492343192,
    0.2805937473201227,
    -0.12579699053733334,
    -0.15592752740348367,
    0.32637076886594857,
    0.05769383927770704,
    -0.2189886558399087,
    0.2533436203900143,
    0.07673534311539719,
    -0.21115694166820423,
    0.19818595006189343,
    0.0477639774039067,
    -0.1998681079676525
  ],
  "feature_std": [
    1.0,
    1.0,
    1.0,
    0.08020080807823705,
    0.037101049758994746,
    0.018968232420828367,
    0.13087497097437353,
    0.049391212697329843,
    0.0404809829332752,
    0.16093662601488973,
    0.08295213477836284,
    0.059851052258622535,
    0.21630758503444555,
    0.15107590304158403,
    0.07267850964681133,
    0.034031193178263607,
    0.15795165009104795,
    0.08916491795873321,
    0.13131926826951157,
    0.097155572852947,
    0.1288998549888922,
    0.20776476598370563,
    0.07511677225194394,
    0.13694598506728584,
    0.247230662142964,
    0.05961126798086687,
    0.1381244398646944,
    0.09755279564660614,
    0.1197013990668471,
    0.08604740597562302,
    0.20368960676816966,
    0.16367061196696586,
    0.12070959270890114,
    0.29580806238844837,
    0.11246151859510808,
    0.10313183867478251,
    0.3675897908479441,
    0.057772009894931725,
    0.0922643853960128,
    0.1534381828944749,
    0.06758759052277712,
    0.08246282042758508,
    0.23591222703852271,
    0.2262217645305514,
    0.09307022334962232,
    0.27831989640957666,
    0.16030141326028624,
    0.05680642975648555,
    0.3256464119952827,
    0.0876889593503646,
    0.037850349974187236,
    0.18804570839868026,
    0.09155470720090855,
    0.08209482682900518,
    0.24192252436227793,
    0.26133200101291026,
    0.07805769442389279,
    0.21126714683351036,
    0.20526140892169673,
    0.06807597304240276,
    0.17139469896629736,
    0.13080184009114357,
    0.06532961638934896
  ],
  "metrics": {
    "train_accuracy": 1.0,
    "test_accuracy": 1.0,
    "sample_count": 436,
    "train_count": 347,
    "test_count": 89,
    "label_counts": {
      "alif": 118,
      "ba": 114,
      "ta": 102,
      "tha": 102
    }
  }
}